digraph Tree {
node [shape=box] ;
0 [label="X[1] <= 0.5\ngini = 0.473\nsamples = 891\nvalue = [549, 342]"] ;
1 [label="X[0] <= 2.5\ngini = 0.383\nsamples = 314\nvalue = [81, 233]"] ;
0 -> 1 [labeldistance=2.5, labelangle=45, headlabel="True"] ;
2 [label="X[2] <= 2.5\ngini = 0.1\nsamples = 170\nvalue = [9, 161]"] ;
1 -> 2 ;
3 [label="X[4] <= 1.5\ngini = 0.5\nsamples = 2\nvalue = [1, 1]"] ;
2 -> 3 ;
4 [label="gini = 0.0\nsamples = 1\nvalue = [0, 1]"] ;
3 -> 4 ;
5 [label="gini = 0.0\nsamples = 1\nvalue = [1, 0]"] ;
3 -> 5 ;
6 [label="X[5] <= 28.856\ngini = 0.091\nsamples = 168\nvalue = [8, 160]"] ;
2 -> 6 ;
7 [label="X[5] <= 28.231\ngini = 0.182\nsamples = 69\nvalue = [7, 62]"] ;
6 -> 7 ;
8 [label="X[2] <= 56.0\ngini = 0.161\nsamples = 68\nvalue = [6, 62]"] ;
7 -> 8 ;
9 [label="X[3] <= 0.5\ngini = 0.14\nsamples = 66\nvalue = [5, 61]"] ;
8 -> 9 ;
10 [label="X[5] <= 13.25\ngini = 0.085\nsamples = 45\nvalue = [2, 43]"] ;
9 -> 10 ;
11 [label="X[5] <= 12.825\ngini = 0.147\nsamples = 25\nvalue = [2, 23]"] ;
10 -> 11 ;
12 [label="gini = 0.0\nsamples = 11\nvalue = [0, 11]"] ;
11 -> 12 ;
13 [label="X[2] <= 26.0\ngini = 0.245\nsamples = 14\nvalue = [2, 12]"] ;
11 -> 13 ;
14 [label="X[2] <= 21.0\ngini = 0.444\nsamples = 3\nvalue = [1, 2]"] ;
13 -> 14 ;
15 [label="gini = 0.0\nsamples = 1\nvalue = [0, 1]"] ;
14 -> 15 ;
16 [label="gini = 0.5\nsamples = 2\nvalue = [1, 1]"] ;
14 -> 16 ;
17 [label="X[2] <= 37.0\ngini = 0.165\nsamples = 11\nvalue = [1, 10]"] ;
13 -> 17 ;
18 [label="gini = 0.0\nsamples = 8\nvalue = [0, 8]"] ;
17 -> 18 ;
19 [label="X[2] <= 39.0\ngini = 0.444\nsamples = 3\nvalue = [1, 2]"] ;
17 -> 19 ;
20 [label="gini = 0.0\nsamples = 1\nvalue = [1, 0]"] ;
19 -> 20 ;
21 [label="gini = 0.0\nsamples = 2\nvalue = [0, 2]"] ;
19 -> 21 ;
22 [label="gini = 0.0\nsamples = 20\nvalue = [0, 20]"] ;
10 -> 22 ;
23 [label="X[2] <= 25.0\ngini = 0.245\nsamples = 21\nvalue = [3, 18]"] ;
9 -> 23 ;
24 [label="gini = 0.0\nsamples = 6\nvalue = [0, 6]"] ;
23 -> 24 ;
25 [label="X[2] <= 27.5\ngini = 0.32\nsamples = 15\nvalue = [3, 12]"] ;
23 -> 25 ;
26 [label="X[5] <= 17.429\ngini = 0.444\nsamples = 3\nvalue = [2, 1]"] ;
25 -> 26 ;
27 [label="gini = 0.0\nsamples = 1\nvalue = [0, 1]"] ;
26 -> 27 ;
28 [label="gini = 0.0\nsamples = 2\nvalue = [2, 0]"] ;
26 -> 28 ;
29 [label="X[2] <= 43.0\ngini = 0.153\nsamples = 12\nvalue = [1, 11]"] ;
25 -> 29 ;
30 [label="gini = 0.0\nsamples = 9\nvalue = [0, 9]"] ;
29 -> 30 ;
31 [label="X[2] <= 44.5\ngini = 0.444\nsamples = 3\nvalue = [1, 2]"] ;
29 -> 31 ;
32 [label="gini = 0.0\nsamples = 1\nvalue = [1, 0]"] ;
31 -> 32 ;
33 [label="gini = 0.0\nsamples = 2\nvalue = [0, 2]"] ;
31 -> 33 ;
34 [label="X[0] <= 1.5\ngini = 0.5\nsamples = 2\nvalue = [1, 1]"] ;
8 -> 34 ;
35 [label="gini = 0.0\nsamples = 1\nvalue = [0, 1]"] ;
34 -> 35 ;
36 [label="gini = 0.0\nsamples = 1\nvalue = [1, 0]"] ;
34 -> 36 ;
37 [label="gini = 0.0\nsamples = 1\nvalue = [1, 0]"] ;
7 -> 37 ;
38 [label="X[4] <= 1.5\ngini = 0.02\nsamples = 99\nvalue = [1, 98]"] ;
6 -> 38 ;
39 [label="gini = 0.0\nsamples = 84\nvalue = [0, 84]"] ;
38 -> 39 ;
40 [label="X[2] <= 24.5\ngini = 0.124\nsamples = 15\nvalue = [1, 14]"] ;
38 -> 40 ;
41 [label="gini = 0.0\nsamples = 10\nvalue = [0, 10]"] ;
40 -> 41 ;
42 [label="X[2] <= 28.0\ngini = 0.32\nsamples = 5\nvalue = [1, 4]"] ;
40 -> 42 ;
43 [label="gini = 0.0\nsamples = 1\nvalue = [1, 0]"] ;
42 -> 43 ;
44 [label="gini = 0.0\nsamples = 4\nvalue = [0, 4]"] ;
42 -> 44 ;
45 [label="X[5] <= 23.35\ngini = 0.5\nsamples = 144\nvalue = [72, 72]"] ;
1 -> 45 ;
46 [label="X[2] <= 36.5\ngini = 0.484\nsamples = 117\nvalue = [48, 69]"] ;
45 -> 46 ;
47 [label="X[5] <= 7.887\ngini = 0.472\nsamples = 110\nvalue = [42, 68]"] ;
46 -> 47 ;
48 [label="X[2] <= 30.1\ngini = 0.393\nsamples = 41\nvalue = [11, 30]"] ;
47 -> 48 ;
49 [label="X[4] <= 1.0\ngini = 0.355\nsamples = 39\nvalue = [9, 30]"] ;
48 -> 49 ;
50 [label="X[5] <= 6.988\ngini = 0.332\nsamples = 38\nvalue = [8, 30]"] ;
49 -> 50 ;
51 [label="gini = 0.0\nsamples = 1\nvalue = [1, 0]"] ;
50 -> 51 ;
52 [label="X[5] <= 7.523\ngini = 0.307\nsamples = 37\nvalue = [7, 30]"] ;
50 -> 52 ;
53 [label="gini = 0.0\nsamples = 6\nvalue = [0, 6]"] ;
52 -> 53 ;
54 [label="X[5] <= 7.64\ngini = 0.35\nsamples = 31\nvalue = [7, 24]"] ;
52 -> 54 ;
55 [label="X[2] <= 26.35\ngini = 0.444\nsamples = 3\nvalue = [2, 1]"] ;
54 -> 55 ;
56 [label="gini = 0.0\nsamples = 1\nvalue = [0, 1]"] ;
55 -> 56 ;
57 [label="gini = 0.0\nsamples = 2\nvalue = [2, 0]"] ;
55 -> 57 ;
58 [label="X[2] <= 15.0\ngini = 0.293\nsamples = 28\nvalue = [5, 23]"] ;
54 -> 58 ;
59 [label="gini = 0.0\nsamples = 1\nvalue = [1, 0]"] ;
58 -> 59 ;
60 [label="X[2] <= 25.5\ngini = 0.252\nsamples = 27\nvalue = [4, 23]"] ;
58 -> 60 ;
61 [label="X[2] <= 23.5\ngini = 0.397\nsamples = 11\nvalue = [3, 8]"] ;
60 -> 61 ;
62 [label="X[2] <= 21.5\ngini = 0.32\nsamples = 10\nvalue = [2, 8]"] ;
61 -> 62 ;
63 [label="X[5] <= 7.742\ngini = 0.408\nsamples = 7\nvalue = [2, 5]"] ;
62 -> 63 ;
64 [label="gini = 0.0\nsamples = 2\nvalue = [0, 2]"] ;
63 -> 64 ;
65 [label="X[5] <= 7.815\ngini = 0.48\nsamples = 5\nvalue = [2, 3]"] ;
63 -> 65 ;
66 [label="X[2] <= 17.0\ngini = 0.444\nsamples = 3\nvalue = [2, 1]"] ;
65 -> 66 ;
67 [label="gini = 0.0\nsamples = 1\nvalue = [0, 1]"] ;
66 -> 67 ;
68 [label="gini = 0.0\nsamples = 2\nvalue = [2, 0]"] ;
66 -> 68 ;
69 [label="gini = 0.0\nsamples = 2\nvalue = [0, 2]"] ;
65 -> 69 ;
70 [label="gini = 0.0\nsamples = 3\nvalue = [0, 3]"] ;
62 -> 70 ;
71 [label="gini = 0.0\nsamples = 1\nvalue = [1, 0]"] ;
61 -> 71 ;
72 [label="X[5] <= 7.769\ngini = 0.117\nsamples = 16\nvalue = [1, 15]"] ;
60 -> 72 ;
73 [label="X[5] <= 7.744\ngini = 0.18\nsamples = 10\nvalue = [1, 9]"] ;
72 -> 73 ;
74 [label="gini = 0.0\nsamples = 2\nvalue = [0, 2]"] ;
73 -> 74 ;
75 [label="gini = 0.219\nsamples = 8\nvalue = [1, 7]"] ;
73 -> 75 ;
76 [label="gini = 0.0\nsamples = 6\nvalue = [0, 6]"] ;
72 -> 76 ;
77 [label="gini = 0.0\nsamples = 1\nvalue = [1, 0]"] ;
49 -> 77 ;
78 [label="gini = 0.0\nsamples = 2\nvalue = [2, 0]"] ;
48 -> 78 ;
79 [label="X[5] <= 10.825\ngini = 0.495\nsamples = 69\nvalue = [31, 38]"] ;
47 -> 79 ;
80 [label="X[2] <= 19.0\ngini = 0.434\nsamples = 22\nvalue = [15, 7]"] ;
79 -> 80 ;
81 [label="X[2] <= 8.5\ngini = 0.32\nsamples = 5\nvalue = [1, 4]"] ;
80 -> 81 ;
82 [label="gini = 0.0\nsamples = 1\nvalue = [1, 0]"] ;
81 -> 82 ;
83 [label="gini = 0.0\nsamples = 4\nvalue = [0, 4]"] ;
81 -> 83 ;
84 [label="X[2] <= 30.5\ngini = 0.291\nsamples = 17\nvalue = [14, 3]"] ;
80 -> 84 ;
85 [label="X[5] <= 7.988\ngini = 0.219\nsamples = 16\nvalue = [14, 2]"] ;
84 -> 85 ;
86 [label="X[2] <= 25.5\ngini = 0.48\nsamples = 5\nvalue = [3, 2]"] ;
85 -> 86 ;
87 [label="gini = 0.0\nsamples = 2\nvalue = [2, 0]"] ;
86 -> 87 ;
88 [label="X[2] <= 27.5\ngini = 0.444\nsamples = 3\nvalue = [1, 2]"] ;
86 -> 88 ;
89 [label="gini = 0.0\nsamples = 2\nvalue = [0, 2]"] ;
88 -> 89 ;
90 [label="gini = 0.0\nsamples = 1\nvalue = [1, 0]"] ;
88 -> 90 ;
91 [label="gini = 0.0\nsamples = 11\nvalue = [11, 0]"] ;
85 -> 91 ;
92 [label="gini = 0.0\nsamples = 1\nvalue = [0, 1]"] ;
84 -> 92 ;
93 [label="X[5] <= 13.908\ngini = 0.449\nsamples = 47\nvalue = [16, 31]"] ;
79 -> 93 ;
94 [label="gini = 0.0\nsamples = 8\nvalue = [0, 8]"] ;
93 -> 94 ;
95 [label="X[5] <= 15.373\ngini = 0.484\nsamples = 39\nvalue = [16, 23]"] ;
93 -> 95 ;
96 [label="X[4] <= 1.5\ngini = 0.32\nsamples = 10\nvalue = [8, 2]"] ;
95 -> 96 ;
97 [label="X[2] <= 16.0\ngini = 0.219\nsamples = 8\nvalue = [7, 1]"] ;
96 -> 97 ;
98 [label="X[2] <= 14.75\ngini = 0.444\nsamples = 3\nvalue = [2, 1]"] ;
97 -> 98 ;
99 [label="gini = 0.0\nsamples = 2\nvalue = [2, 0]"] ;
98 -> 99 ;
100 [label="gini = 0.0\nsamples = 1\nvalue = [0, 1]"] ;
98 -> 100 ;
101 [label="gini = 0.0\nsamples = 5\nvalue = [5, 0]"] ;
97 -> 101 ;
102 [label="X[2] <= 29.35\ngini = 0.5\nsamples = 2\nvalue = [1, 1]"] ;
96 -> 102 ;
103 [label="gini = 0.0\nsamples = 1\nvalue = [0, 1]"] ;
102 -> 103 ;
104 [label="gini = 0.0\nsamples = 1\nvalue = [1, 0]"] ;
102 -> 104 ;
105 [label="X[4] <= 3.5\ngini = 0.4\nsamples = 29\nvalue = [8, 21]"] ;
95 -> 105 ;
106 [label="X[3] <= 2.5\ngini = 0.375\nsamples = 28\nvalue = [7, 21]"] ;
105 -> 106 ;
107 [label="X[5] <= 18.629\ngini = 0.32\nsamples = 25\nvalue = [5, 20]"] ;
106 -> 107 ;
108 [label="X[5] <= 17.6\ngini = 0.444\nsamples = 15\nvalue = [5, 10]"] ;
107 -> 108 ;
109 [label="X[2] <= 30.85\ngini = 0.278\nsamples = 12\nvalue = [2, 10]"] ;
108 -> 109 ;
110 [label="X[2] <= 27.85\ngini = 0.18\nsamples = 10\nvalue = [1, 9]"] ;
109 -> 110 ;
111 [label="X[2] <= 25.0\ngini = 0.32\nsamples = 5\nvalue = [1, 4]"] ;
110 -> 111 ;
112 [label="gini = 0.0\nsamples = 4\nvalue = [0, 4]"] ;
111 -> 112 ;
113 [label="gini = 0.0\nsamples = 1\nvalue = [1, 0]"] ;
111 -> 113 ;
114 [label="gini = 0.0\nsamples = 5\nvalue = [0, 5]"] ;
110 -> 114 ;
115 [label="X[2] <= 34.0\ngini = 0.5\nsamples = 2\nvalue = [1, 1]"] ;
109 -> 115 ;
116 [label="gini = 0.0\nsamples = 1\nvalue = [1, 0]"] ;
115 -> 116 ;
117 [label="gini = 0.0\nsamples = 1\nvalue = [0, 1]"] ;
115 -> 117 ;
118 [label="gini = 0.0\nsamples = 3\nvalue = [3, 0]"] ;
108 -> 118 ;
119 [label="gini = 0.0\nsamples = 10\nvalue = [0, 10]"] ;
107 -> 119 ;
120 [label="X[5] <= 18.463\ngini = 0.444\nsamples = 3\nvalue = [2, 1]"] ;
106 -> 120 ;
121 [label="gini = 0.0\nsamples = 1\nvalue = [0, 1]"] ;
120 -> 121 ;
122 [label="gini = 0.0\nsamples = 2\nvalue = [2, 0]"] ;
120 -> 122 ;
123 [label="gini = 0.0\nsamples = 1\nvalue = [1, 0]"] ;
105 -> 123 ;
124 [label="X[2] <= 55.0\ngini = 0.245\nsamples = 7\nvalue = [6, 1]"] ;
46 -> 124 ;
125 [label="gini = 0.0\nsamples = 6\nvalue = [6, 0]"] ;
124 -> 125 ;
126 [label="gini = 0.0\nsamples = 1\nvalue = [0, 1]"] ;
124 -> 126 ;
127 [label="X[4] <= 0.5\ngini = 0.198\nsamples = 27\nvalue = [24, 3]"] ;
45 -> 127 ;
128 [label="gini = 0.0\nsamples = 1\nvalue = [0, 1]"] ;
127 -> 128 ;
129 [label="X[2] <= 5.5\ngini = 0.142\nsamples = 26\nvalue = [24, 2]"] ;
127 -> 129 ;
130 [label="X[5] <= 31.331\ngini = 0.444\nsamples = 3\nvalue = [2, 1]"] ;
129 -> 130 ;
131 [label="gini = 0.0\nsamples = 2\nvalue = [2, 0]"] ;
130 -> 131 ;
132 [label="gini = 0.0\nsamples = 1\nvalue = [0, 1]"] ;
130 -> 132 ;
133 [label="X[4] <= 4.5\ngini = 0.083\nsamples = 23\nvalue = [22, 1]"] ;
129 -> 133 ;
134 [label="gini = 0.0\nsamples = 18\nvalue = [18, 0]"] ;
133 -> 134 ;
135 [label="X[2] <= 38.5\ngini = 0.32\nsamples = 5\nvalue = [4, 1]"] ;
133 -> 135 ;
136 [label="gini = 0.0\nsamples = 1\nvalue = [0, 1]"] ;
135 -> 136 ;
137 [label="gini = 0.0\nsamples = 4\nvalue = [4, 0]"] ;
135 -> 137 ;
138 [label="X[2] <= 6.5\ngini = 0.306\nsamples = 577\nvalue = [468, 109]"] ;
0 -> 138 [labeldistance=2.5, labelangle=-45, headlabel="False"] ;
139 [label="X[3] <= 2.5\ngini = 0.444\nsamples = 24\nvalue = [8, 16]"] ;
138 -> 139 ;
140 [label="gini = 0.0\nsamples = 15\nvalue = [0, 15]"] ;
139 -> 140 ;
141 [label="X[4] <= 1.5\ngini = 0.198\nsamples = 9\nvalue = [8, 1]"] ;
139 -> 141 ;
142 [label="gini = 0.0\nsamples = 5\nvalue = [5, 0]"] ;
141 -> 142 ;
143 [label="X[5] <= 31.331\ngini = 0.375\nsamples = 4\nvalue = [3, 1]"] ;
141 -> 143 ;
144 [label="gini = 0.0\nsamples = 2\nvalue = [2, 0]"] ;
143 -> 144 ;
145 [label="X[5] <= 39.144\ngini = 0.5\nsamples = 2\nvalue = [1, 1]"] ;
143 -> 145 ;
146 [label="gini = 0.0\nsamples = 1\nvalue = [0, 1]"] ;
145 -> 146 ;
147 [label="gini = 0.0\nsamples = 1\nvalue = [1, 0]"] ;
145 -> 147 ;
148 [label="X[0] <= 1.5\ngini = 0.28\nsamples = 553\nvalue = [460, 93]"] ;
138 -> 148 ;
149 [label="X[5] <= 26.144\ngini = 0.46\nsamples = 120\nvalue = [77, 43]"] ;
148 -> 149 ;
150 [label="gini = 0.0\nsamples = 10\nvalue = [10, 0]"] ;
149 -> 150 ;
151 [label="X[2] <= 53.0\ngini = 0.476\nsamples = 110\nvalue = [67, 43]"] ;
149 -> 151 ;
152 [label="X[5] <= 27.135\ngini = 0.495\nsamples = 89\nvalue = [49, 40]"] ;
151 -> 152 ;
153 [label="X[5] <= 26.469\ngini = 0.26\nsamples = 13\nvalue = [2, 11]"] ;
152 -> 153 ;
154 [label="gini = 0.0\nsamples = 4\nvalue = [0, 4]"] ;
153 -> 154 ;
155 [label="X[2] <= 46.5\ngini = 0.346\nsamples = 9\nvalue = [2, 7]"] ;
153 -> 155 ;
156 [label="X[2] <= 40.0\ngini = 0.408\nsamples = 7\nvalue = [2, 5]"] ;
155 -> 156 ;
157 [label="X[2] <= 31.85\ngini = 0.32\nsamples = 5\nvalue = [1, 4]"] ;
156 -> 157 ;
158 [label="X[2] <= 28.85\ngini = 0.444\nsamples = 3\nvalue = [1, 2]"] ;
157 -> 158 ;
159 [label="gini = 0.0\nsamples = 1\nvalue = [0, 1]"] ;
158 -> 159 ;
160 [label="gini = 0.5\nsamples = 2\nvalue = [1, 1]"] ;
158 -> 160 ;
161 [label="gini = 0.0\nsamples = 2\nvalue = [0, 2]"] ;
157 -> 161 ;
162 [label="gini = 0.5\nsamples = 2\nvalue = [1, 1]"] ;
156 -> 162 ;
163 [label="gini = 0.0\nsamples = 2\nvalue = [0, 2]"] ;
155 -> 163 ;
164 [label="X[2] <= 17.5\ngini = 0.472\nsamples = 76\nvalue = [47, 29]"] ;
152 -> 164 ;
165 [label="gini = 0.0\nsamples = 2\nvalue = [0, 2]"] ;
164 -> 165 ;
166 [label="X[5] <= 387.665\ngini = 0.463\nsamples = 74\nvalue = [47, 27]"] ;
164 -> 166 ;
167 [label="X[5] <= 134.642\ngini = 0.453\nsamples = 72\nvalue = [47, 25]"] ;
166 -> 167 ;
168 [label="X[2] <= 27.5\ngini = 0.473\nsamples = 65\nvalue = [40, 25]"] ;
167 -> 168 ;
169 [label="X[2] <= 24.5\ngini = 0.463\nsamples = 11\nvalue = [4, 7]"] ;
168 -> 169 ;
170 [label="X[4] <= 0.5\ngini = 0.32\nsamples = 5\nvalue = [4, 1]"] ;
169 -> 170 ;
171 [label="gini = 0.0\nsamples = 3\nvalue = [3, 0]"] ;
170 -> 171 ;
172 [label="X[2] <= 22.0\ngini = 0.5\nsamples = 2\nvalue = [1, 1]"] ;
170 -> 172 ;
173 [label="gini = 0.0\nsamples = 1\nvalue = [1, 0]"] ;
172 -> 173 ;
174 [label="gini = 0.0\nsamples = 1\nvalue = [0, 1]"] ;
172 -> 174 ;
175 [label="gini = 0.0\nsamples = 6\nvalue = [0, 6]"] ;
169 -> 175 ;
176 [label="X[5] <= 115.442\ngini = 0.444\nsamples = 54\nvalue = [36, 18]"] ;
168 -> 176 ;
177 [label="X[5] <= 29.1\ngini = 0.426\nsamples = 52\nvalue = [36, 16]"] ;
176 -> 177 ;
178 [label="gini = 0.0\nsamples = 5\nvalue = [5, 0]"] ;
177 -> 178 ;
179 [label="X[5] <= 30.598\ngini = 0.449\nsamples = 47\nvalue = [31, 16]"] ;
177 -> 179 ;
180 [label="X[2] <= 29.35\ngini = 0.408\nsamples = 7\nvalue = [2, 5]"] ;
179 -> 180 ;
181 [label="gini = 0.0\nsamples = 1\nvalue = [1, 0]"] ;
180 -> 181 ;
182 [label="X[4] <= 0.5\ngini = 0.278\nsamples = 6\nvalue = [1, 5]"] ;
180 -> 182 ;
183 [label="gini = 0.0\nsamples = 5\nvalue = [0, 5]"] ;
182 -> 183 ;
184 [label="gini = 0.0\nsamples = 1\nvalue = [1, 0]"] ;
182 -> 184 ;
185 [label="X[3] <= 0.5\ngini = 0.399\nsamples = 40\nvalue = [29, 11]"] ;
179 -> 185 ;
186 [label="X[5] <= 37.0\ngini = 0.266\nsamples = 19\nvalue = [16, 3]"] ;
185 -> 186 ;
187 [label="X[2] <= 28.85\ngini = 0.469\nsamples = 8\nvalue = [5, 3]"] ;
186 -> 187 ;
188 [label="gini = 0.0\nsamples = 1\nvalue = [0, 1]"] ;
187 -> 188 ;
189 [label="X[2] <= 42.5\ngini = 0.408\nsamples = 7\nvalue = [5, 2]"] ;
187 -> 189 ;
190 [label="X[5] <= 35.25\ngini = 0.48\nsamples = 5\nvalue = [3, 2]"] ;
189 -> 190 ;
191 [label="X[2] <= 34.85\ngini = 0.375\nsamples = 4\nvalue = [3, 1]"] ;
190 -> 191 ;
192 [label="gini = 0.0\nsamples = 3\nvalue = [3, 0]"] ;
191 -> 192 ;
193 [label="gini = 0.0\nsamples = 1\nvalue = [0, 1]"] ;
191 -> 193 ;
194 [label="gini = 0.0\nsamples = 1\nvalue = [0, 1]"] ;
190 -> 194 ;
195 [label="gini = 0.0\nsamples = 2\nvalue = [2, 0]"] ;
189 -> 195 ;
196 [label="gini = 0.0\nsamples = 11\nvalue = [11, 0]"] ;
186 -> 196 ;
197 [label="X[2] <= 49.5\ngini = 0.472\nsamples = 21\nvalue = [13, 8]"] ;
185 -> 197 ;
198 [label="X[2] <= 47.0\ngini = 0.494\nsamples = 18\nvalue = [10, 8]"] ;
197 -> 198 ;
199 [label="X[4] <= 0.5\ngini = 0.426\nsamples = 13\nvalue = [9, 4]"] ;
198 -> 199 ;
200 [label="X[2] <= 43.0\ngini = 0.375\nsamples = 12\nvalue = [9, 3]"] ;
199 -> 200 ;
201 [label="X[2] <= 37.5\ngini = 0.444\nsamples = 9\nvalue = [6, 3]"] ;
200 -> 201 ;
202 [label="X[5] <= 61.8\ngini = 0.278\nsamples = 6\nvalue = [5, 1]"] ;
201 -> 202 ;
203 [label="X[5] <= 55.05\ngini = 0.444\nsamples = 3\nvalue = [2, 1]"] ;
202 -> 203 ;
204 [label="gini = 0.0\nsamples = 2\nvalue = [2, 0]"] ;
203 -> 204 ;
205 [label="gini = 0.0\nsamples = 1\nvalue = [0, 1]"] ;
203 -> 205 ;
206 [label="gini = 0.0\nsamples = 3\nvalue = [3, 0]"] ;
202 -> 206 ;
207 [label="X[5] <= 52.277\ngini = 0.444\nsamples = 3\nvalue = [1, 2]"] ;
201 -> 207 ;
208 [label="gini = 0.0\nsamples = 1\nvalue = [1, 0]"] ;
207 -> 208 ;
209 [label="gini = 0.0\nsamples = 2\nvalue = [0, 2]"] ;
207 -> 209 ;
210 [label="gini = 0.0\nsamples = 3\nvalue = [3, 0]"] ;
200 -> 210 ;
211 [label="gini = 0.0\nsamples = 1\nvalue = [0, 1]"] ;
199 -> 211 ;
212 [label="X[4] <= 0.5\ngini = 0.32\nsamples = 5\nvalue = [1, 4]"] ;
198 -> 212 ;
213 [label="gini = 0.0\nsamples = 4\nvalue = [0, 4]"] ;
212 -> 213 ;
214 [label="gini = 0.0\nsamples = 1\nvalue = [1, 0]"] ;
212 -> 214 ;
215 [label="gini = 0.0\nsamples = 3\nvalue = [3, 0]"] ;
197 -> 215 ;
216 [label="gini = 0.0\nsamples = 2\nvalue = [0, 2]"] ;
176 -> 216 ;
217 [label="gini = 0.0\nsamples = 7\nvalue = [7, 0]"] ;
167 -> 217 ;
218 [label="gini = 0.0\nsamples = 2\nvalue = [0, 2]"] ;
166 -> 218 ;
219 [label="X[2] <= 75.5\ngini = 0.245\nsamples = 21\nvalue = [18, 3]"] ;
151 -> 219 ;
220 [label="X[5] <= 35.077\ngini = 0.18\nsamples = 20\nvalue = [18, 2]"] ;
219 -> 220 ;
221 [label="gini = 0.0\nsamples = 11\nvalue = [11, 0]"] ;
220 -> 221 ;
222 [label="X[5] <= 42.502\ngini = 0.346\nsamples = 9\nvalue = [7, 2]"] ;
220 -> 222 ;
223 [label="gini = 0.0\nsamples = 1\nvalue = [0, 1]"] ;
222 -> 223 ;
224 [label="X[3] <= 0.5\ngini = 0.219\nsamples = 8\nvalue = [7, 1]"] ;
222 -> 224 ;
225 [label="gini = 0.0\nsamples = 5\nvalue = [5, 0]"] ;
224 -> 225 ;
226 [label="X[2] <= 62.0\ngini = 0.444\nsamples = 3\nvalue = [2, 1]"] ;
224 -> 226 ;
227 [label="gini = 0.0\nsamples = 1\nvalue = [0, 1]"] ;
226 -> 227 ;
228 [label="gini = 0.0\nsamples = 2\nvalue = [2, 0]"] ;
226 -> 228 ;
229 [label="gini = 0.0\nsamples = 1\nvalue = [0, 1]"] ;
219 -> 229 ;
230 [label="X[5] <= 51.698\ngini = 0.204\nsamples = 433\nvalue = [383, 50]"] ;
148 -> 230 ;
231 [label="X[2] <= 13.0\ngini = 0.193\nsamples = 417\nvalue = [372, 45]"] ;
230 -> 231 ;
232 [label="X[3] <= 2.0\ngini = 0.444\nsamples = 12\nvalue = [8, 4]"] ;
231 -> 232 ;
233 [label="X[4] <= 0.5\ngini = 0.32\nsamples = 5\nvalue = [1, 4]"] ;
232 -> 233 ;
234 [label="X[5] <= 15.015\ngini = 0.5\nsamples = 2\nvalue = [1, 1]"] ;
233 -> 234 ;
235 [label="gini = 0.0\nsamples = 1\nvalue = [0, 1]"] ;
234 -> 235 ;
236 [label="gini = 0.0\nsamples = 1\nvalue = [1, 0]"] ;
234 -> 236 ;
237 [label="gini = 0.0\nsamples = 3\nvalue = [0, 3]"] ;
233 -> 237 ;
238 [label="gini = 0.0\nsamples = 7\nvalue = [7, 0]"] ;
232 -> 238 ;
239 [label="X[2] <= 32.25\ngini = 0.182\nsamples = 405\nvalue = [364, 41]"] ;
231 -> 239 ;
240 [label="X[2] <= 30.75\ngini = 0.206\nsamples = 300\nvalue = [265, 35]"] ;
239 -> 240 ;
241 [label="X[5] <= 23.35\ngini = 0.185\nsamples = 282\nvalue = [253, 29]"] ;
240 -> 241 ;
242 [label="X[5] <= 22.888\ngini = 0.195\nsamples = 265\nvalue = [236, 29]"] ;
241 -> 242 ;
243 [label="X[4] <= 0.5\ngini = 0.19\nsamples = 264\nvalue = [236, 28]"] ;
242 -> 243 ;
244 [label="X[2] <= 29.35\ngini = 0.177\nsamples = 254\nvalue = [229, 25]"] ;
243 -> 244 ;
245 [label="X[2] <= 28.75\ngini = 0.209\nsamples = 152\nvalue = [134, 18]"] ;
244 -> 245 ;
246 [label="X[5] <= 7.24\ngini = 0.189\nsamples = 142\nvalue = [127, 15]"] ;
245 -> 246 ;
247 [label="X[2] <= 19.5\ngini = 0.375\nsamples = 20\nvalue = [15, 5]"] ;
246 -> 247 ;
248 [label="gini = 0.0\nsamples = 5\nvalue = [5, 0]"] ;
247 -> 248 ;
249 [label="X[5] <= 2.006\ngini = 0.444\nsamples = 15\nvalue = [10, 5]"] ;
247 -> 249 ;
250 [label="gini = 0.0\nsamples = 1\nvalue = [0, 1]"] ;
249 -> 250 ;
251 [label="X[5] <= 7.133\ngini = 0.408\nsamples = 14\nvalue = [10, 4]"] ;
249 -> 251 ;
252 [label="X[2] <= 26.0\ngini = 0.245\nsamples = 7\nvalue = [6, 1]"] ;
251 -> 252 ;
253 [label="gini = 0.0\nsamples = 6\nvalue = [6, 0]"] ;
252 -> 253 ;
254 [label="gini = 0.0\nsamples = 1\nvalue = [0, 1]"] ;
252 -> 254 ;
255 [label="X[2] <= 24.5\ngini = 0.49\nsamples = 7\nvalue = [4, 3]"] ;
251 -> 255 ;
256 [label="X[5] <= 7.227\ngini = 0.48\nsamples = 5\nvalue = [2, 3]"] ;
255 -> 256 ;
257 [label="gini = 0.0\nsamples = 2\nvalue = [0, 2]"] ;
256 -> 257 ;
258 [label="X[2] <= 21.0\ngini = 0.444\nsamples = 3\nvalue = [2, 1]"] ;
256 -> 258 ;
259 [label="gini = 0.0\nsamples = 1\nvalue = [0, 1]"] ;
258 -> 259 ;
260 [label="gini = 0.0\nsamples = 2\nvalue = [2, 0]"] ;
258 -> 260 ;
261 [label="gini = 0.0\nsamples = 2\nvalue = [2, 0]"] ;
255 -> 261 ;
262 [label="X[5] <= 18.394\ngini = 0.15\nsamples = 122\nvalue = [112, 10]"] ;
246 -> 262 ;
263 [label="X[5] <= 8.831\ngini = 0.139\nsamples = 120\nvalue = [111, 9]"] ;
262 -> 263 ;
264 [label="X[3] <= 0.5\ngini = 0.191\nsamples = 75\nvalue = [67, 8]"] ;
263 -> 264 ;
265 [label="X[2] <= 26.5\ngini = 0.161\nsamples = 68\nvalue = [62, 6]"] ;
264 -> 265 ;
266 [label="X[2] <= 19.5\ngini = 0.123\nsamples = 61\nvalue = [57, 4]"] ;
265 -> 266 ;
267 [label="X[5] <= 7.973\ngini = 0.266\nsamples = 19\nvalue = [16, 3]"] ;
266 -> 267 ;
268 [label="gini = 0.0\nsamples = 9\nvalue = [9, 0]"] ;
267 -> 268 ;
269 [label="X[5] <= 8.104\ngini = 0.42\nsamples = 10\nvalue = [7, 3]"] ;
267 -> 269 ;
270 [label="X[2] <= 17.0\ngini = 0.48\nsamples = 5\nvalue = [2, 3]"] ;
269 -> 270 ;
271 [label="gini = 0.5\nsamples = 2\nvalue = [1, 1]"] ;
270 -> 271 ;
272 [label="X[2] <= 18.5\ngini = 0.444\nsamples = 3\nvalue = [1, 2]"] ;
270 -> 272 ;
273 [label="gini = 0.0\nsamples = 1\nvalue = [0, 1]"] ;
272 -> 273 ;
274 [label="gini = 0.5\nsamples = 2\nvalue = [1, 1]"] ;
272 -> 274 ;
275 [label="gini = 0.0\nsamples = 5\nvalue = [5, 0]"] ;
269 -> 275 ;
276 [label="X[5] <= 7.798\ngini = 0.046\nsamples = 42\nvalue = [41, 1]"] ;
266 -> 276 ;
277 [label="X[5] <= 7.785\ngini = 0.124\nsamples = 15\nvalue = [14, 1]"] ;
276 -> 277 ;
278 [label="gini = 0.0\nsamples = 12\nvalue = [12, 0]"] ;
277 -> 278 ;
279 [label="X[2] <= 21.5\ngini = 0.444\nsamples = 3\nvalue = [2, 1]"] ;
277 -> 279 ;
280 [label="gini = 0.0\nsamples = 1\nvalue = [0, 1]"] ;
279 -> 280 ;
281 [label="gini = 0.0\nsamples = 2\nvalue = [2, 0]"] ;
279 -> 281 ;
282 [label="gini = 0.0\nsamples = 27\nvalue = [27, 0]"] ;
276 -> 282 ;
283 [label="X[2] <= 27.5\ngini = 0.408\nsamples = 7\nvalue = [5, 2]"] ;
265 -> 283 ;
284 [label="X[5] <= 7.846\ngini = 0.444\nsamples = 3\nvalue = [1, 2]"] ;
283 -> 284 ;
285 [label="gini = 0.0\nsamples = 1\nvalue = [0, 1]"] ;
284 -> 285 ;
286 [label="X[5] <= 8.279\ngini = 0.5\nsamples = 2\nvalue = [1, 1]"] ;
284 -> 286 ;
287 [label="gini = 0.0\nsamples = 1\nvalue = [1, 0]"] ;
286 -> 287 ;
288 [label="gini = 0.0\nsamples = 1\nvalue = [0, 1]"] ;
286 -> 288 ;
289 [label="gini = 0.0\nsamples = 4\nvalue = [4, 0]"] ;
283 -> 289 ;
290 [label="X[2] <= 21.0\ngini = 0.408\nsamples = 7\nvalue = [5, 2]"] ;
264 -> 290 ;
291 [label="gini = 0.0\nsamples = 1\nvalue = [0, 1]"] ;
290 -> 291 ;
292 [label="X[2] <= 25.5\ngini = 0.278\nsamples = 6\nvalue = [5, 1]"] ;
290 -> 292 ;
293 [label="X[2] <= 23.5\ngini = 0.444\nsamples = 3\nvalue = [2, 1]"] ;
292 -> 293 ;
294 [label="gini = 0.0\nsamples = 1\nvalue = [1, 0]"] ;
293 -> 294 ;
295 [label="gini = 0.5\nsamples = 2\nvalue = [1, 1]"] ;
293 -> 295 ;
296 [label="gini = 0.0\nsamples = 3\nvalue = [3, 0]"] ;
292 -> 296 ;
297 [label="X[2] <= 19.5\ngini = 0.043\nsamples = 45\nvalue = [44, 1]"] ;
263 -> 297 ;
298 [label="X[2] <= 18.5\ngini = 0.153\nsamples = 12\nvalue = [11, 1]"] ;
297 -> 298 ;
299 [label="gini = 0.0\nsamples = 7\nvalue = [7, 0]"] ;
298 -> 299 ;
300 [label="X[5] <= 11.75\ngini = 0.32\nsamples = 5\nvalue = [4, 1]"] ;
298 -> 300 ;
301 [label="X[0] <= 2.5\ngini = 0.444\nsamples = 3\nvalue = [2, 1]"] ;
300 -> 301 ;
302 [label="gini = 0.5\nsamples = 2\nvalue = [1, 1]"] ;
301 -> 302 ;
303 [label="gini = 0.0\nsamples = 1\nvalue = [1, 0]"] ;
301 -> 303 ;
304 [label="gini = 0.0\nsamples = 2\nvalue = [2, 0]"] ;
300 -> 304 ;
305 [label="gini = 0.0\nsamples = 33\nvalue = [33, 0]"] ;
297 -> 305 ;
306 [label="X[2] <= 27.0\ngini = 0.5\nsamples = 2\nvalue = [1, 1]"] ;
262 -> 306 ;
307 [label="gini = 0.0\nsamples = 1\nvalue = [0, 1]"] ;
306 -> 307 ;
308 [label="gini = 0.0\nsamples = 1\nvalue = [1, 0]"] ;
306 -> 308 ;
309 [label="X[5] <= 10.0\ngini = 0.42\nsamples = 10\nvalue = [7, 3]"] ;
245 -> 309 ;
310 [label="X[5] <= 9.492\ngini = 0.469\nsamples = 8\nvalue = [5, 3]"] ;
309 -> 310 ;
311 [label="X[5] <= 7.973\ngini = 0.408\nsamples = 7\nvalue = [5, 2]"] ;
310 -> 311 ;
312 [label="X[5] <= 7.885\ngini = 0.48\nsamples = 5\nvalue = [3, 2]"] ;
311 -> 312 ;
313 [label="X[5] <= 7.762\ngini = 0.375\nsamples = 4\nvalue = [3, 1]"] ;
312 -> 313 ;
314 [label="X[5] <= 7.398\ngini = 0.5\nsamples = 2\nvalue = [1, 1]"] ;
313 -> 314 ;
315 [label="gini = 0.0\nsamples = 1\nvalue = [1, 0]"] ;
314 -> 315 ;
316 [label="gini = 0.0\nsamples = 1\nvalue = [0, 1]"] ;
314 -> 316 ;
317 [label="gini = 0.0\nsamples = 2\nvalue = [2, 0]"] ;
313 -> 317 ;
318 [label="gini = 0.0\nsamples = 1\nvalue = [0, 1]"] ;
312 -> 318 ;
319 [label="gini = 0.0\nsamples = 2\nvalue = [2, 0]"] ;
311 -> 319 ;
320 [label="gini = 0.0\nsamples = 1\nvalue = [0, 1]"] ;
310 -> 320 ;
321 [label="gini = 0.0\nsamples = 2\nvalue = [2, 0]"] ;
309 -> 321 ;
322 [label="X[5] <= 8.081\ngini = 0.128\nsamples = 102\nvalue = [95, 7]"] ;
244 -> 322 ;
323 [label="X[5] <= 7.802\ngini = 0.075\nsamples = 77\nvalue = [74, 3]"] ;
322 -> 323 ;
324 [label="X[5] <= 7.762\ngini = 0.124\nsamples = 45\nvalue = [42, 3]"] ;
323 -> 324 ;
325 [label="X[5] <= 7.227\ngini = 0.089\nsamples = 43\nvalue = [41, 2]"] ;
324 -> 325 ;
326 [label="gini = 0.0\nsamples = 15\nvalue = [15, 0]"] ;
325 -> 326 ;
327 [label="X[5] <= 7.24\ngini = 0.133\nsamples = 28\nvalue = [26, 2]"] ;
325 -> 327 ;
328 [label="X[2] <= 29.85\ngini = 0.245\nsamples = 7\nvalue = [6, 1]"] ;
327 -> 328 ;
329 [label="gini = 0.278\nsamples = 6\nvalue = [5, 1]"] ;
328 -> 329 ;
330 [label="gini = 0.0\nsamples = 1\nvalue = [1, 0]"] ;
328 -> 330 ;
331 [label="X[5] <= 7.744\ngini = 0.091\nsamples = 21\nvalue = [20, 1]"] ;
327 -> 331 ;
332 [label="gini = 0.0\nsamples = 10\nvalue = [10, 0]"] ;
331 -> 332 ;
333 [label="X[3] <= 0.5\ngini = 0.165\nsamples = 11\nvalue = [10, 1]"] ;
331 -> 333 ;
334 [label="gini = 0.18\nsamples = 10\nvalue = [9, 1]"] ;
333 -> 334 ;
335 [label="gini = 0.0\nsamples = 1\nvalue = [1, 0]"] ;
333 -> 335 ;
336 [label="gini = 0.5\nsamples = 2\nvalue = [1, 1]"] ;
324 -> 336 ;
337 [label="gini = 0.0\nsamples = 32\nvalue = [32, 0]"] ;
323 -> 337 ;
338 [label="X[5] <= 8.285\ngini = 0.269\nsamples = 25\nvalue = [21, 4]"] ;
322 -> 338 ;
339 [label="gini = 0.0\nsamples = 1\nvalue = [0, 1]"] ;
338 -> 339 ;
340 [label="X[5] <= 14.16\ngini = 0.219\nsamples = 24\nvalue = [21, 3]"] ;
338 -> 340 ;
341 [label="X[5] <= 13.431\ngini = 0.397\nsamples = 11\nvalue = [8, 3]"] ;
340 -> 341 ;
342 [label="X[5] <= 9.106\ngini = 0.32\nsamples = 10\nvalue = [8, 2]"] ;
341 -> 342 ;
343 [label="gini = 0.0\nsamples = 3\nvalue = [3, 0]"] ;
342 -> 343 ;
344 [label="X[2] <= 29.85\ngini = 0.408\nsamples = 7\nvalue = [5, 2]"] ;
342 -> 344 ;
345 [label="X[5] <= 11.25\ngini = 0.5\nsamples = 2\nvalue = [1, 1]"] ;
344 -> 345 ;
346 [label="gini = 0.0\nsamples = 1\nvalue = [1, 0]"] ;
345 -> 346 ;
347 [label="gini = 0.0\nsamples = 1\nvalue = [0, 1]"] ;
345 -> 347 ;
348 [label="X[5] <= 10.0\ngini = 0.32\nsamples = 5\nvalue = [4, 1]"] ;
344 -> 348 ;
349 [label="gini = 0.0\nsamples = 1\nvalue = [0, 1]"] ;
348 -> 349 ;
350 [label="gini = 0.0\nsamples = 4\nvalue = [4, 0]"] ;
348 -> 350 ;
351 [label="gini = 0.0\nsamples = 1\nvalue = [0, 1]"] ;
341 -> 351 ;
352 [label="gini = 0.0\nsamples = 13\nvalue = [13, 0]"] ;
340 -> 352 ;
353 [label="X[2] <= 27.85\ngini = 0.42\nsamples = 10\nvalue = [7, 3]"] ;
243 -> 353 ;
354 [label="X[2] <= 19.0\ngini = 0.219\nsamples = 8\nvalue = [7, 1]"] ;
353 -> 354 ;
355 [label="gini = 0.0\nsamples = 5\nvalue = [5, 0]"] ;
354 -> 355 ;
356 [label="X[2] <= 21.5\ngini = 0.444\nsamples = 3\nvalue = [2, 1]"] ;
354 -> 356 ;
357 [label="gini = 0.0\nsamples = 1\nvalue = [0, 1]"] ;
356 -> 357 ;
358 [label="gini = 0.0\nsamples = 2\nvalue = [2, 0]"] ;
356 -> 358 ;
359 [label="gini = 0.0\nsamples = 2\nvalue = [0, 2]"] ;
353 -> 359 ;
360 [label="gini = 0.0\nsamples = 1\nvalue = [0, 1]"] ;
242 -> 360 ;
361 [label="gini = 0.0\nsamples = 17\nvalue = [17, 0]"] ;
241 -> 361 ;
362 [label="X[5] <= 7.815\ngini = 0.444\nsamples = 18\nvalue = [12, 6]"] ;
240 -> 362 ;
363 [label="gini = 0.0\nsamples = 3\nvalue = [3, 0]"] ;
362 -> 363 ;
364 [label="X[5] <= 7.875\ngini = 0.48\nsamples = 15\nvalue = [9, 6]"] ;
362 -> 364 ;
365 [label="gini = 0.0\nsamples = 1\nvalue = [0, 1]"] ;
364 -> 365 ;
366 [label="X[4] <= 0.5\ngini = 0.459\nsamples = 14\nvalue = [9, 5]"] ;
364 -> 366 ;
367 [label="X[5] <= 20.925\ngini = 0.486\nsamples = 12\nvalue = [7, 5]"] ;
366 -> 367 ;
368 [label="X[2] <= 31.5\ngini = 0.463\nsamples = 11\nvalue = [7, 4]"] ;
367 -> 368 ;
369 [label="X[0] <= 2.5\ngini = 0.444\nsamples = 3\nvalue = [1, 2]"] ;
368 -> 369 ;
370 [label="X[5] <= 11.75\ngini = 0.5\nsamples = 2\nvalue = [1, 1]"] ;
369 -> 370 ;
371 [label="gini = 0.0\nsamples = 1\nvalue = [1, 0]"] ;
370 -> 371 ;
372 [label="gini = 0.0\nsamples = 1\nvalue = [0, 1]"] ;
370 -> 372 ;
373 [label="gini = 0.0\nsamples = 1\nvalue = [0, 1]"] ;
369 -> 373 ;
374 [label="X[5] <= 8.206\ngini = 0.375\nsamples = 8\nvalue = [6, 2]"] ;
368 -> 374 ;
375 [label="X[5] <= 7.988\ngini = 0.48\nsamples = 5\nvalue = [3, 2]"] ;
374 -> 375 ;
376 [label="X[5] <= 7.91\ngini = 0.375\nsamples = 4\nvalue = [3, 1]"] ;
375 -> 376 ;
377 [label="gini = 0.0\nsamples = 1\nvalue = [1, 0]"] ;
376 -> 377 ;
378 [label="gini = 0.444\nsamples = 3\nvalue = [2, 1]"] ;
376 -> 378 ;
379 [label="gini = 0.0\nsamples = 1\nvalue = [0, 1]"] ;
375 -> 379 ;
380 [label="gini = 0.0\nsamples = 3\nvalue = [3, 0]"] ;
374 -> 380 ;
381 [label="gini = 0.0\nsamples = 1\nvalue = [0, 1]"] ;
367 -> 381 ;
382 [label="gini = 0.0\nsamples = 2\nvalue = [2, 0]"] ;
366 -> 382 ;
383 [label="X[5] <= 7.91\ngini = 0.108\nsamples = 105\nvalue = [99, 6]"] ;
239 -> 383 ;
384 [label="gini = 0.0\nsamples = 32\nvalue = [32, 0]"] ;
383 -> 384 ;
385 [label="X[5] <= 7.988\ngini = 0.151\nsamples = 73\nvalue = [67, 6]"] ;
383 -> 385 ;
386 [label="X[2] <= 38.0\ngini = 0.5\nsamples = 4\nvalue = [2, 2]"] ;
385 -> 386 ;
387 [label="gini = 0.0\nsamples = 1\nvalue = [1, 0]"] ;
386 -> 387 ;
388 [label="X[2] <= 41.5\ngini = 0.444\nsamples = 3\nvalue = [1, 2]"] ;
386 -> 388 ;
389 [label="gini = 0.5\nsamples = 2\nvalue = [1, 1]"] ;
388 -> 389 ;
390 [label="gini = 0.0\nsamples = 1\nvalue = [0, 1]"] ;
388 -> 390 ;
391 [label="X[2] <= 61.0\ngini = 0.109\nsamples = 69\nvalue = [65, 4]"] ;
385 -> 391 ;
392 [label="X[5] <= 13.25\ngini = 0.087\nsamples = 66\nvalue = [63, 3]"] ;
391 -> 392 ;
393 [label="X[5] <= 12.938\ngini = 0.157\nsamples = 35\nvalue = [32, 3]"] ;
392 -> 393 ;
394 [label="X[2] <= 44.5\ngini = 0.08\nsamples = 24\nvalue = [23, 1]"] ;
393 -> 394 ;
395 [label="gini = 0.0\nsamples = 17\nvalue = [17, 0]"] ;
394 -> 395 ;
396 [label="X[2] <= 46.0\ngini = 0.245\nsamples = 7\nvalue = [6, 1]"] ;
394 -> 396 ;
397 [label="gini = 0.0\nsamples = 1\nvalue = [0, 1]"] ;
396 -> 397 ;
398 [label="gini = 0.0\nsamples = 6\nvalue = [6, 0]"] ;
396 -> 398 ;
399 [label="X[2] <= 45.0\ngini = 0.298\nsamples = 11\nvalue = [9, 2]"] ;
393 -> 399 ;
400 [label="X[2] <= 40.5\ngini = 0.375\nsamples = 8\nvalue = [6, 2]"] ;
399 -> 400 ;
401 [label="X[2] <= 35.0\ngini = 0.278\nsamples = 6\nvalue = [5, 1]"] ;
400 -> 401 ;
402 [label="gini = 0.444\nsamples = 3\nvalue = [2, 1]"] ;
401 -> 402 ;
403 [label="gini = 0.0\nsamples = 3\nvalue = [3, 0]"] ;
401 -> 403 ;
404 [label="gini = 0.5\nsamples = 2\nvalue = [1, 1]"] ;
400 -> 404 ;
405 [label="gini = 0.0\nsamples = 3\nvalue = [3, 0]"] ;
399 -> 405 ;
406 [label="gini = 0.0\nsamples = 31\nvalue = [31, 0]"] ;
392 -> 406 ;
407 [label="X[2] <= 64.0\ngini = 0.444\nsamples = 3\nvalue = [2, 1]"] ;
391 -> 407 ;
408 [label="gini = 0.0\nsamples = 1\nvalue = [0, 1]"] ;
407 -> 408 ;
409 [label="gini = 0.0\nsamples = 2\nvalue = [2, 0]"] ;
407 -> 409 ;
410 [label="X[5] <= 63.023\ngini = 0.43\nsamples = 16\nvalue = [11, 5]"] ;
230 -> 410 ;
411 [label="X[2] <= 30.85\ngini = 0.408\nsamples = 7\nvalue = [2, 5]"] ;
410 -> 411 ;
412 [label="X[2] <= 27.0\ngini = 0.48\nsamples = 5\nvalue = [2, 3]"] ;
411 -> 412 ;
413 [label="gini = 0.0\nsamples = 1\nvalue = [0, 1]"] ;
412 -> 413 ;
414 [label="X[2] <= 28.85\ngini = 0.5\nsamples = 4\nvalue = [2, 2]"] ;
412 -> 414 ;
415 [label="gini = 0.0\nsamples = 1\nvalue = [1, 0]"] ;
414 -> 415 ;
416 [label="gini = 0.444\nsamples = 3\nvalue = [1, 2]"] ;
414 -> 416 ;
417 [label="gini = 0.0\nsamples = 2\nvalue = [0, 2]"] ;
411 -> 417 ;
418 [label="gini = 0.0\nsamples = 9\nvalue = [9, 0]"] ;
410 -> 418 ;
}
